TreeEnsembleModel classifier with 100 trees

  Tree 0:
    If (feature 0 <= 119665.0)
     If (feature 0 <= 34777.0)
      If (feature 0 <= 29808.0)
       Predict: 0.0
      Else (feature 0 > 29808.0)
       Predict: 0.0
     Else (feature 0 > 34777.0)
      If (feature 0 <= 44552.0)
       Predict: 1.0
      Else (feature 0 > 44552.0)
       Predict: 0.0
    Else (feature 0 > 119665.0)
     If (feature 0 <= 132961.0)
      If (feature 0 <= 129600.0)
       Predict: 0.0
      Else (feature 0 > 129600.0)
       Predict: 0.0
     Else (feature 0 > 132961.0)
      If (feature 0 <= 259289.0)
       Predict: 0.0
      Else (feature 0 > 259289.0)
       Predict: 0.0
  Tree 1:
    If (feature 0 <= 112715.0)
     If (feature 0 <= 34777.0)
      If (feature 0 <= 29808.0)
       Predict: 0.0
      Else (feature 0 > 29808.0)
       Predict: 0.0
     Else (feature 0 > 34777.0)
      If (feature 0 <= 40003.0)
       Predict: 1.0
      Else (feature 0 > 40003.0)
       Predict: 0.0
    Else (feature 0 > 112715.0)
     If (feature 0 <= 119665.0)
      If (feature 0 <= 117336.0)
       Predict: 0.0
      Else (feature 0 > 117336.0)
       Predict: 0.0
     Else (feature 0 > 119665.0)
      If (feature 0 <= 132961.0)
       Predict: 0.0
      Else (feature 0 > 132961.0)
       Predict: 0.0
  Tree 2:
    If (feature 0 <= 45044.0)
     If (feature 0 <= 36487.0)
      If (feature 0 <= 29808.0)
       Predict: 0.0
      Else (feature 0 > 29808.0)
       Predict: 0.0
     Else (feature 0 > 36487.0)
      If (feature 0 <= 40003.0)
       Predict: 1.0
      Else (feature 0 > 40003.0)
       Predict: 0.0
    Else (feature 0 > 45044.0)
     If (feature 0 <= 132961.0)
      If (feature 0 <= 129600.0)
       Predict: 0.0
      Else (feature 0 > 129600.0)
       Predict: 1.0
     Else (feature 0 > 132961.0)
      If (feature 0 <= 259289.0)
       Predict: 0.0
      Else (feature 0 > 259289.0)
       Predict: 0.0
  Tree 3:
    If (feature 0 <= 44552.0)
     If (feature 0 <= 37507.0)
      If (feature 0 <= 29808.0)
       Predict: 0.0
      Else (feature 0 > 29808.0)
       Predict: 0.0
     Else (feature 0 > 37507.0)
      If (feature 0 <= 40003.0)
       Predict: 1.0
      Else (feature 0 > 40003.0)
       Predict: 0.0
    Else (feature 0 > 44552.0)
     If (feature 0 <= 132961.0)
      If (feature 0 <= 129600.0)
       Predict: 0.0
      Else (feature 0 > 129600.0)
       Predict: 1.0
     Else (feature 0 > 132961.0)
      If (feature 0 <= 259289.0)
       Predict: 0.0
      Else (feature 0 > 259289.0)
       Predict: 0.0
  Tree 4:
    If (feature 0 <= 112064.0)
     If (feature 0 <= 34777.0)
      If (feature 0 <= 29808.0)
       Predict: 0.0
      Else (feature 0 > 29808.0)
       Predict: 0.0
     Else (feature 0 > 34777.0)
      If (feature 0 <= 40003.0)
       Predict: 1.0
      Else (feature 0 > 40003.0)
       Predict: 0.0
    Else (feature 0 > 112064.0)
     If (feature 0 <= 119665.0)
      If (feature 0 <= 116128.0)
       Predict: 0.0
      Else (feature 0 > 116128.0)
       Predict: 0.0
     Else (feature 0 > 119665.0)
      If (feature 0 <= 132961.0)
       Predict: 0.0
      Else (feature 0 > 132961.0)
       Predict: 0.0
  Tree 5:
    If (feature 0 <= 112715.0)
     If (feature 0 <= 44552.0)
      If (feature 0 <= 37507.0)
       Predict: 0.0
      Else (feature 0 > 37507.0)
       Predict: 1.0
     Else (feature 0 > 44552.0)
      If (feature 0 <= 110677.0)
       Predict: 0.0
      Else (feature 0 > 110677.0)
       Predict: 0.0
    Else (feature 0 > 112715.0)
     If (feature 0 <= 132961.0)
      If (feature 0 <= 129600.0)
       Predict: 0.0
      Else (feature 0 > 129600.0)
       Predict: 1.0
     Else (feature 0 > 132961.0)
      If (feature 0 <= 259289.0)
       Predict: 0.0
      Else (feature 0 > 259289.0)
       Predict: 0.0
  Tree 6:
    If (feature 0 <= 44552.0)
     If (feature 0 <= 34777.0)
      If (feature 0 <= 29808.0)
       Predict: 0.0
      Else (feature 0 > 29808.0)
       Predict: 0.0
     Else (feature 0 > 34777.0)
      If (feature 0 <= 38013.0)
       Predict: 0.0
      Else (feature 0 > 38013.0)
       Predict: 1.0
    Else (feature 0 > 44552.0)
     If (feature 0 <= 132961.0)
      If (feature 0 <= 129600.0)
       Predict: 0.0
      Else (feature 0 > 129600.0)
       Predict: 0.0
     Else (feature 0 > 132961.0)
      If (feature 0 <= 259289.0)
       Predict: 0.0
      Else (feature 0 > 259289.0)
       Predict: 0.0
  Tree 7:
    If (feature 0 <= 112715.0)
     If (feature 0 <= 34777.0)
      If (feature 0 <= 30425.0)
       Predict: 0.0
      Else (feature 0 > 30425.0)
       Predict: 0.0
     Else (feature 0 > 34777.0)
      If (feature 0 <= 44552.0)
       Predict: 1.0
      Else (feature 0 > 44552.0)
       Predict: 0.0
    Else (feature 0 > 112715.0)
     If (feature 0 <= 132961.0)
      If (feature 0 <= 129600.0)
       Predict: 0.0
      Else (feature 0 > 129600.0)
       Predict: 1.0
     Else (feature 0 > 132961.0)
      If (feature 0 <= 256830.0)
       Predict: 0.0
      Else (feature 0 > 256830.0)
       Predict: 0.0
  Tree 8:
    If (feature 0 <= 112715.0)
     If (feature 0 <= 36487.0)
      If (feature 0 <= 29808.0)
       Predict: 0.0
      Else (feature 0 > 29808.0)
       Predict: 0.0
     Else (feature 0 > 36487.0)
      If (feature 0 <= 40003.0)
       Predict: 1.0
      Else (feature 0 > 40003.0)
       Predict: 0.0
    Else (feature 0 > 112715.0)
     If (feature 0 <= 132961.0)
      If (feature 0 <= 129600.0)
       Predict: 0.0
      Else (feature 0 > 129600.0)
       Predict: 1.0
     Else (feature 0 > 132961.0)
      If (feature 0 <= 186120.0)
       Predict: 0.0
      Else (feature 0 > 186120.0)
       Predict: 0.0
  Tree 9:
    If (feature 0 <= 112715.0)
     If (feature 0 <= 30425.0)
      If (feature 0 <= 29808.0)
       Predict: 0.0
      Else (feature 0 > 29808.0)
       Predict: 0.0
     Else (feature 0 > 30425.0)
      If (feature 0 <= 44552.0)
       Predict: 0.0
      Else (feature 0 > 44552.0)
       Predict: 0.0
    Else (feature 0 > 112715.0)
     If (feature 0 <= 132961.0)
      If (feature 0 <= 129600.0)
       Predict: 0.0
      Else (feature 0 > 129600.0)
       Predict: 0.0
     Else (feature 0 > 132961.0)
      If (feature 0 <= 256830.0)
       Predict: 0.0
      Else (feature 0 > 256830.0)
       Predict: 0.0
  Tree 10:
    If (feature 0 <= 112715.0)
     If (feature 0 <= 36487.0)
      If (feature 0 <= 30425.0)
       Predict: 0.0
      Else (feature 0 > 30425.0)
       Predict: 0.0
     Else (feature 0 > 36487.0)
      If (feature 0 <= 40003.0)
       Predict: 1.0
      Else (feature 0 > 40003.0)
       Predict: 0.0
    Else (feature 0 > 112715.0)
     If (feature 0 <= 186120.0)
      If (feature 0 <= 114487.0)
       Predict: 0.0
      Else (feature 0 > 114487.0)
       Predict: 0.0
     Else (feature 0 > 186120.0)
      If (feature 0 <= 256830.0)
       Predict: 0.0
      Else (feature 0 > 256830.0)
       Predict: 0.0
  Tree 11:
    If (feature 0 <= 113580.0)
     If (feature 0 <= 34777.0)
      If (feature 0 <= 29808.0)
       Predict: 0.0
      Else (feature 0 > 29808.0)
       Predict: 0.0
     Else (feature 0 > 34777.0)
      If (feature 0 <= 45044.0)
       Predict: 1.0
      Else (feature 0 > 45044.0)
       Predict: 0.0
    Else (feature 0 > 113580.0)
     If (feature 0 <= 132961.0)
      If (feature 0 <= 129600.0)
       Predict: 0.0
      Else (feature 0 > 129600.0)
       Predict: 1.0
     Else (feature 0 > 132961.0)
      If (feature 0 <= 256830.0)
       Predict: 0.0
      Else (feature 0 > 256830.0)
       Predict: 0.0
  Tree 12:
    If (feature 0 <= 112715.0)
     If (feature 0 <= 36487.0)
      If (feature 0 <= 29808.0)
       Predict: 0.0
      Else (feature 0 > 29808.0)
       Predict: 0.0
     Else (feature 0 > 36487.0)
      If (feature 0 <= 44552.0)
       Predict: 1.0
      Else (feature 0 > 44552.0)
       Predict: 0.0
    Else (feature 0 > 112715.0)
     If (feature 0 <= 136417.0)
      If (feature 0 <= 129600.0)
       Predict: 0.0
      Else (feature 0 > 129600.0)
       Predict: 0.0
     Else (feature 0 > 136417.0)
      If (feature 0 <= 259289.0)
       Predict: 0.0
      Else (feature 0 > 259289.0)
       Predict: 0.0
  Tree 13:
    If (feature 0 <= 112715.0)
     If (feature 0 <= 36487.0)
      If (feature 0 <= 30425.0)
       Predict: 0.0
      Else (feature 0 > 30425.0)
       Predict: 0.0
     Else (feature 0 > 36487.0)
      If (feature 0 <= 44552.0)
       Predict: 1.0
      Else (feature 0 > 44552.0)
       Predict: 0.0
    Else (feature 0 > 112715.0)
     If (feature 0 <= 119665.0)
      If (feature 0 <= 118950.0)
       Predict: 0.0
      Else (feature 0 > 118950.0)
       Predict: 0.0
     Else (feature 0 > 119665.0)
      If (feature 0 <= 186120.0)
       Predict: 0.0
      Else (feature 0 > 186120.0)
       Predict: 0.0
  Tree 14:
    If (feature 0 <= 113580.0)
     If (feature 0 <= 34777.0)
      If (feature 0 <= 29808.0)
       Predict: 0.0
      Else (feature 0 > 29808.0)
       Predict: 0.0
     Else (feature 0 > 34777.0)
      If (feature 0 <= 43842.0)
       Predict: 1.0
      Else (feature 0 > 43842.0)
       Predict: 0.0
    Else (feature 0 > 113580.0)
     If (feature 0 <= 119665.0)
      If (feature 0 <= 118950.0)
       Predict: 0.0
      Else (feature 0 > 118950.0)
       Predict: 0.0
     Else (feature 0 > 119665.0)
      If (feature 0 <= 132961.0)
       Predict: 0.0
      Else (feature 0 > 132961.0)
       Predict: 0.0
  Tree 15:
    If (feature 0 <= 45044.0)
     If (feature 0 <= 36487.0)
      If (feature 0 <= 34777.0)
       Predict: 0.0
      Else (feature 0 > 34777.0)
       Predict: 0.0
     Else (feature 0 > 36487.0)
      If (feature 0 <= 44552.0)
       Predict: 1.0
      Else (feature 0 > 44552.0)
       Predict: 0.0
    Else (feature 0 > 45044.0)
     If (feature 0 <= 119665.0)
      If (feature 0 <= 98742.0)
       Predict: 0.0
      Else (feature 0 > 98742.0)
       Predict: 0.0
     Else (feature 0 > 119665.0)
      If (feature 0 <= 132961.0)
       Predict: 0.0
      Else (feature 0 > 132961.0)
       Predict: 0.0
  Tree 16:
    If (feature 0 <= 45044.0)
     If (feature 0 <= 36487.0)
      If (feature 0 <= 29808.0)
       Predict: 0.0
      Else (feature 0 > 29808.0)
       Predict: 0.0
     Else (feature 0 > 36487.0)
      If (feature 0 <= 40588.0)
       Predict: 1.0
      Else (feature 0 > 40588.0)
       Predict: 0.0
    Else (feature 0 > 45044.0)
     If (feature 0 <= 132961.0)
      If (feature 0 <= 129600.0)
       Predict: 0.0
      Else (feature 0 > 129600.0)
       Predict: 1.0
     Else (feature 0 > 132961.0)
      If (feature 0 <= 259289.0)
       Predict: 0.0
      Else (feature 0 > 259289.0)
       Predict: 0.0
  Tree 17:
    If (feature 0 <= 45044.0)
     If (feature 0 <= 36487.0)
      If (feature 0 <= 29808.0)
       Predict: 0.0
      Else (feature 0 > 29808.0)
       Predict: 0.0
     Else (feature 0 > 36487.0)
      If (feature 0 <= 40003.0)
       Predict: 1.0
      Else (feature 0 > 40003.0)
       Predict: 0.0
    Else (feature 0 > 45044.0)
     If (feature 0 <= 132961.0)
      If (feature 0 <= 129600.0)
       Predict: 0.0
      Else (feature 0 > 129600.0)
       Predict: 0.0
     Else (feature 0 > 132961.0)
      If (feature 0 <= 259289.0)
       Predict: 0.0
      Else (feature 0 > 259289.0)
       Predict: 0.0
  Tree 18:
    If (feature 0 <= 45044.0)
     If (feature 0 <= 36487.0)
      If (feature 0 <= 29808.0)
       Predict: 0.0
      Else (feature 0 > 29808.0)
       Predict: 0.0
     Else (feature 0 > 36487.0)
      If (feature 0 <= 40003.0)
       Predict: 1.0
      Else (feature 0 > 40003.0)
       Predict: 0.0
    Else (feature 0 > 45044.0)
     If (feature 0 <= 132961.0)
      If (feature 0 <= 129600.0)
       Predict: 0.0
      Else (feature 0 > 129600.0)
       Predict: 1.0
     Else (feature 0 > 132961.0)
      If (feature 0 <= 259289.0)
       Predict: 0.0
      Else (feature 0 > 259289.0)
       Predict: 0.0
  Tree 19:
    If (feature 0 <= 112715.0)
     If (feature 0 <= 30425.0)
      If (feature 0 <= 29808.0)
       Predict: 0.0
      Else (feature 0 > 29808.0)
       Predict: 0.0
     Else (feature 0 > 30425.0)
      If (feature 0 <= 45044.0)
       Predict: 1.0
      Else (feature 0 > 45044.0)
       Predict: 0.0
    Else (feature 0 > 112715.0)
     If (feature 0 <= 132961.0)
      If (feature 0 <= 129600.0)
       Predict: 0.0
      Else (feature 0 > 129600.0)
       Predict: 0.0
     Else (feature 0 > 132961.0)
      If (feature 0 <= 186120.0)
       Predict: 0.0
      Else (feature 0 > 186120.0)
       Predict: 0.0
  Tree 20:
    If (feature 0 <= 112064.0)
     If (feature 0 <= 36487.0)
      If (feature 0 <= 29808.0)
       Predict: 0.0
      Else (feature 0 > 29808.0)
       Predict: 0.0
     Else (feature 0 > 36487.0)
      If (feature 0 <= 40003.0)
       Predict: 1.0
      Else (feature 0 > 40003.0)
       Predict: 0.0
    Else (feature 0 > 112064.0)
     If (feature 0 <= 132961.0)
      If (feature 0 <= 129600.0)
       Predict: 0.0
      Else (feature 0 > 129600.0)
       Predict: 1.0
     Else (feature 0 > 132961.0)
      If (feature 0 <= 186120.0)
       Predict: 0.0
      Else (feature 0 > 186120.0)
       Predict: 0.0
  Tree 21:
    If (feature 0 <= 45044.0)
     If (feature 0 <= 36487.0)
      If (feature 0 <= 29808.0)
       Predict: 0.0
      Else (feature 0 > 29808.0)
       Predict: 0.0
     Else (feature 0 > 36487.0)
      If (feature 0 <= 40003.0)
       Predict: 1.0
      Else (feature 0 > 40003.0)
       Predict: 0.0
    Else (feature 0 > 45044.0)
     If (feature 0 <= 132961.0)
      If (feature 0 <= 116128.0)
       Predict: 0.0
      Else (feature 0 > 116128.0)
       Predict: 0.0
     Else (feature 0 > 132961.0)
      If (feature 0 <= 259289.0)
       Predict: 0.0
      Else (feature 0 > 259289.0)
       Predict: 0.0
  Tree 22:
    If (feature 0 <= 111537.0)
     If (feature 0 <= 34777.0)
      If (feature 0 <= 30425.0)
       Predict: 0.0
      Else (feature 0 > 30425.0)
       Predict: 0.0
     Else (feature 0 > 34777.0)
      If (feature 0 <= 40003.0)
       Predict: 1.0
      Else (feature 0 > 40003.0)
       Predict: 0.0
    Else (feature 0 > 111537.0)
     If (feature 0 <= 119665.0)
      If (feature 0 <= 117336.0)
       Predict: 0.0
      Else (feature 0 > 117336.0)
       Predict: 0.0
     Else (feature 0 > 119665.0)
      If (feature 0 <= 132961.0)
       Predict: 0.0
      Else (feature 0 > 132961.0)
       Predict: 0.0
  Tree 23:
    If (feature 0 <= 44552.0)
     If (feature 0 <= 37507.0)
      If (feature 0 <= 30425.0)
       Predict: 0.0
      Else (feature 0 > 30425.0)
       Predict: 0.0
     Else (feature 0 > 37507.0)
      If (feature 0 <= 40003.0)
       Predict: 1.0
      Else (feature 0 > 40003.0)
       Predict: 0.0
    Else (feature 0 > 44552.0)
     If (feature 0 <= 119665.0)
      If (feature 0 <= 109301.0)
       Predict: 0.0
      Else (feature 0 > 109301.0)
       Predict: 0.0
     Else (feature 0 > 119665.0)
      If (feature 0 <= 186120.0)
       Predict: 0.0
      Else (feature 0 > 186120.0)
       Predict: 0.0
  Tree 24:
    If (feature 0 <= 44552.0)
     If (feature 0 <= 34777.0)
      If (feature 0 <= 29808.0)
       Predict: 0.0
      Else (feature 0 > 29808.0)
       Predict: 0.0
     Else (feature 0 > 34777.0)
      If (feature 0 <= 40003.0)
       Predict: 1.0
      Else (feature 0 > 40003.0)
       Predict: 0.0
    Else (feature 0 > 44552.0)
     If (feature 0 <= 119665.0)
      If (feature 0 <= 109301.0)
       Predict: 0.0
      Else (feature 0 > 109301.0)
       Predict: 0.0
     Else (feature 0 > 119665.0)
      If (feature 0 <= 132961.0)
       Predict: 0.0
      Else (feature 0 > 132961.0)
       Predict: 0.0
  Tree 25:
    If (feature 0 <= 112715.0)
     If (feature 0 <= 36487.0)
      If (feature 0 <= 29808.0)
       Predict: 0.0
      Else (feature 0 > 29808.0)
       Predict: 0.0
     Else (feature 0 > 36487.0)
      If (feature 0 <= 40003.0)
       Predict: 1.0
      Else (feature 0 > 40003.0)
       Predict: 0.0
    Else (feature 0 > 112715.0)
     If (feature 0 <= 132961.0)
      If (feature 0 <= 129600.0)
       Predict: 0.0
      Else (feature 0 > 129600.0)
       Predict: 0.0
     Else (feature 0 > 132961.0)
      If (feature 0 <= 259289.0)
       Predict: 0.0
      Else (feature 0 > 259289.0)
       Predict: 0.0
  Tree 26:
    If (feature 0 <= 119665.0)
     If (feature 0 <= 44552.0)
      If (feature 0 <= 36487.0)
       Predict: 0.0
      Else (feature 0 > 36487.0)
       Predict: 1.0
     Else (feature 0 > 44552.0)
      If (feature 0 <= 98742.0)
       Predict: 0.0
      Else (feature 0 > 98742.0)
       Predict: 0.0
    Else (feature 0 > 119665.0)
     If (feature 0 <= 132961.0)
      If (feature 0 <= 129600.0)
       Predict: 0.0
      Else (feature 0 > 129600.0)
       Predict: 1.0
     Else (feature 0 > 132961.0)
      If (feature 0 <= 259289.0)
       Predict: 0.0
      Else (feature 0 > 259289.0)
       Predict: 0.0
  Tree 27:
    If (feature 0 <= 45044.0)
     If (feature 0 <= 37507.0)
      If (feature 0 <= 34777.0)
       Predict: 0.0
      Else (feature 0 > 34777.0)
       Predict: 0.0
     Else (feature 0 > 37507.0)
      If (feature 0 <= 40003.0)
       Predict: 1.0
      Else (feature 0 > 40003.0)
       Predict: 0.0
    Else (feature 0 > 45044.0)
     If (feature 0 <= 132961.0)
      If (feature 0 <= 129600.0)
       Predict: 0.0
      Else (feature 0 > 129600.0)
       Predict: 0.0
     Else (feature 0 > 132961.0)
      If (feature 0 <= 259289.0)
       Predict: 0.0
      Else (feature 0 > 259289.0)
       Predict: 0.0
  Tree 28:
    If (feature 0 <= 45044.0)
     If (feature 0 <= 37507.0)
      If (feature 0 <= 29808.0)
       Predict: 0.0
      Else (feature 0 > 29808.0)
       Predict: 0.0
     Else (feature 0 > 37507.0)
      If (feature 0 <= 40003.0)
       Predict: 1.0
      Else (feature 0 > 40003.0)
       Predict: 0.0
    Else (feature 0 > 45044.0)
     If (feature 0 <= 132961.0)
      If (feature 0 <= 129600.0)
       Predict: 0.0
      Else (feature 0 > 129600.0)
       Predict: 1.0
     Else (feature 0 > 132961.0)
      If (feature 0 <= 256830.0)
       Predict: 0.0
      Else (feature 0 > 256830.0)
       Predict: 0.0
  Tree 29:
    If (feature 0 <= 119665.0)
     If (feature 0 <= 43842.0)
      If (feature 0 <= 36968.0)
       Predict: 0.0
      Else (feature 0 > 36968.0)
       Predict: 1.0
     Else (feature 0 > 43842.0)
      If (feature 0 <= 118950.0)
       Predict: 0.0
      Else (feature 0 > 118950.0)
       Predict: 0.0
    Else (feature 0 > 119665.0)
     If (feature 0 <= 132961.0)
      If (feature 0 <= 129600.0)
       Predict: 0.0
      Else (feature 0 > 129600.0)
       Predict: 0.0
     Else (feature 0 > 132961.0)
      If (feature 0 <= 149428.0)
       Predict: 0.0
      Else (feature 0 > 149428.0)
       Predict: 0.0
  Tree 30:
    If (feature 0 <= 45044.0)
     If (feature 0 <= 37507.0)
      If (feature 0 <= 36487.0)
       Predict: 0.0
      Else (feature 0 > 36487.0)
       Predict: 0.0
     Else (feature 0 > 37507.0)
      If (feature 0 <= 40003.0)
       Predict: 1.0
      Else (feature 0 > 40003.0)
       Predict: 0.0
    Else (feature 0 > 45044.0)
     If (feature 0 <= 132961.0)
      If (feature 0 <= 129600.0)
       Predict: 0.0
      Else (feature 0 > 129600.0)
       Predict: 1.0
     Else (feature 0 > 132961.0)
      If (feature 0 <= 186120.0)
       Predict: 0.0
      Else (feature 0 > 186120.0)
       Predict: 0.0
  Tree 31:
    If (feature 0 <= 114487.0)
     If (feature 0 <= 34777.0)
      If (feature 0 <= 29808.0)
       Predict: 0.0
      Else (feature 0 > 29808.0)
       Predict: 0.0
     Else (feature 0 > 34777.0)
      If (feature 0 <= 40003.0)
       Predict: 1.0
      Else (feature 0 > 40003.0)
       Predict: 0.0
    Else (feature 0 > 114487.0)
     If (feature 0 <= 121492.0)
      If (feature 0 <= 118224.0)
       Predict: 0.0
      Else (feature 0 > 118224.0)
       Predict: 0.0
     Else (feature 0 > 121492.0)
      If (feature 0 <= 286580.0)
       Predict: 0.0
      Else (feature 0 > 286580.0)
       Predict: 0.0
  Tree 32:
    If (feature 0 <= 44552.0)
     If (feature 0 <= 36968.0)
      If (feature 0 <= 29808.0)
       Predict: 0.0
      Else (feature 0 > 29808.0)
       Predict: 0.0
     Else (feature 0 > 36968.0)
      If (feature 0 <= 40003.0)
       Predict: 1.0
      Else (feature 0 > 40003.0)
       Predict: 0.0
    Else (feature 0 > 44552.0)
     If (feature 0 <= 118224.0)
      If (feature 0 <= 110677.0)
       Predict: 0.0
      Else (feature 0 > 110677.0)
       Predict: 0.0
     Else (feature 0 > 118224.0)
      If (feature 0 <= 186120.0)
       Predict: 0.0
      Else (feature 0 > 186120.0)
       Predict: 0.0
  Tree 33:
    If (feature 0 <= 112715.0)
     If (feature 0 <= 40003.0)
      If (feature 0 <= 37507.0)
       Predict: 0.0
      Else (feature 0 > 37507.0)
       Predict: 1.0
     Else (feature 0 > 40003.0)
      If (feature 0 <= 110677.0)
       Predict: 0.0
      Else (feature 0 > 110677.0)
       Predict: 0.0
    Else (feature 0 > 112715.0)
     If (feature 0 <= 132961.0)
      If (feature 0 <= 129600.0)
       Predict: 0.0
      Else (feature 0 > 129600.0)
       Predict: 1.0
     Else (feature 0 > 132961.0)
      If (feature 0 <= 136417.0)
       Predict: 0.0
      Else (feature 0 > 136417.0)
       Predict: 0.0
  Tree 34:
    If (feature 0 <= 45044.0)
     If (feature 0 <= 34777.0)
      If (feature 0 <= 29808.0)
       Predict: 0.0
      Else (feature 0 > 29808.0)
       Predict: 0.0
     Else (feature 0 > 34777.0)
      If (feature 0 <= 40003.0)
       Predict: 1.0
      Else (feature 0 > 40003.0)
       Predict: 0.0
    Else (feature 0 > 45044.0)
     If (feature 0 <= 119665.0)
      If (feature 0 <= 109301.0)
       Predict: 0.0
      Else (feature 0 > 109301.0)
       Predict: 0.0
     Else (feature 0 > 119665.0)
      If (feature 0 <= 132961.0)
       Predict: 0.0
      Else (feature 0 > 132961.0)
       Predict: 0.0
  Tree 35:
    If (feature 0 <= 45044.0)
     If (feature 0 <= 37507.0)
      If (feature 0 <= 29808.0)
       Predict: 0.0
      Else (feature 0 > 29808.0)
       Predict: 0.0
     Else (feature 0 > 37507.0)
      If (feature 0 <= 40588.0)
       Predict: 1.0
      Else (feature 0 > 40588.0)
       Predict: 0.0
    Else (feature 0 > 45044.0)
     If (feature 0 <= 132961.0)
      If (feature 0 <= 129600.0)
       Predict: 0.0
      Else (feature 0 > 129600.0)
       Predict: 1.0
     Else (feature 0 > 132961.0)
      If (feature 0 <= 186120.0)
       Predict: 0.0
      Else (feature 0 > 186120.0)
       Predict: 0.0
  Tree 36:
    If (feature 0 <= 112715.0)
     If (feature 0 <= 36487.0)
      If (feature 0 <= 29808.0)
       Predict: 0.0
      Else (feature 0 > 29808.0)
       Predict: 0.0
     Else (feature 0 > 36487.0)
      If (feature 0 <= 40003.0)
       Predict: 1.0
      Else (feature 0 > 40003.0)
       Predict: 0.0
    Else (feature 0 > 112715.0)
     If (feature 0 <= 132961.0)
      If (feature 0 <= 129600.0)
       Predict: 0.0
      Else (feature 0 > 129600.0)
       Predict: 1.0
     Else (feature 0 > 132961.0)
      If (feature 0 <= 259289.0)
       Predict: 0.0
      Else (feature 0 > 259289.0)
       Predict: 0.0
  Tree 37:
    If (feature 0 <= 112715.0)
     If (feature 0 <= 34777.0)
      If (feature 0 <= 29808.0)
       Predict: 0.0
      Else (feature 0 > 29808.0)
       Predict: 0.0
     Else (feature 0 > 34777.0)
      If (feature 0 <= 40003.0)
       Predict: 1.0
      Else (feature 0 > 40003.0)
       Predict: 0.0
    Else (feature 0 > 112715.0)
     If (feature 0 <= 132961.0)
      If (feature 0 <= 129600.0)
       Predict: 0.0
      Else (feature 0 > 129600.0)
       Predict: 0.0
     Else (feature 0 > 132961.0)
      If (feature 0 <= 259289.0)
       Predict: 0.0
      Else (feature 0 > 259289.0)
       Predict: 0.0
  Tree 38:
    If (feature 0 <= 112715.0)
     If (feature 0 <= 36968.0)
      If (feature 0 <= 29808.0)
       Predict: 0.0
      Else (feature 0 > 29808.0)
       Predict: 0.0
     Else (feature 0 > 36968.0)
      If (feature 0 <= 40003.0)
       Predict: 1.0
      Else (feature 0 > 40003.0)
       Predict: 0.0
    Else (feature 0 > 112715.0)
     If (feature 0 <= 132961.0)
      If (feature 0 <= 129600.0)
       Predict: 0.0
      Else (feature 0 > 129600.0)
       Predict: 1.0
     Else (feature 0 > 132961.0)
      If (feature 0 <= 259289.0)
       Predict: 0.0
      Else (feature 0 > 259289.0)
       Predict: 0.0
  Tree 39:
    If (feature 0 <= 112715.0)
     If (feature 0 <= 34777.0)
      If (feature 0 <= 29808.0)
       Predict: 0.0
      Else (feature 0 > 29808.0)
       Predict: 0.0
     Else (feature 0 > 34777.0)
      If (feature 0 <= 40003.0)
       Predict: 1.0
      Else (feature 0 > 40003.0)
       Predict: 0.0
    Else (feature 0 > 112715.0)
     If (feature 0 <= 132961.0)
      If (feature 0 <= 129600.0)
       Predict: 0.0
      Else (feature 0 > 129600.0)
       Predict: 0.0
     Else (feature 0 > 132961.0)
      If (feature 0 <= 259289.0)
       Predict: 0.0
      Else (feature 0 > 259289.0)
       Predict: 0.0
  Tree 40:
    If (feature 0 <= 44552.0)
     If (feature 0 <= 34777.0)
      If (feature 0 <= 29808.0)
       Predict: 0.0
      Else (feature 0 > 29808.0)
       Predict: 0.0
     Else (feature 0 > 34777.0)
      If (feature 0 <= 40003.0)
       Predict: 1.0
      Else (feature 0 > 40003.0)
       Predict: 0.0
    Else (feature 0 > 44552.0)
     If (feature 0 <= 132961.0)
      If (feature 0 <= 111537.0)
       Predict: 0.0
      Else (feature 0 > 111537.0)
       Predict: 0.0
     Else (feature 0 > 132961.0)
      If (feature 0 <= 450840.0)
       Predict: 0.0
      Else (feature 0 > 450840.0)
       Predict: 0.0
  Tree 41:
    If (feature 0 <= 45044.0)
     If (feature 0 <= 34777.0)
      If (feature 0 <= 29808.0)
       Predict: 0.0
      Else (feature 0 > 29808.0)
       Predict: 0.0
     Else (feature 0 > 34777.0)
      If (feature 0 <= 40003.0)
       Predict: 1.0
      Else (feature 0 > 40003.0)
       Predict: 0.0
    Else (feature 0 > 45044.0)
     If (feature 0 <= 132961.0)
      If (feature 0 <= 114487.0)
       Predict: 0.0
      Else (feature 0 > 114487.0)
       Predict: 0.0
     Else (feature 0 > 132961.0)
      If (feature 0 <= 186120.0)
       Predict: 0.0
      Else (feature 0 > 186120.0)
       Predict: 0.0
  Tree 42:
    If (feature 0 <= 112715.0)
     If (feature 0 <= 37507.0)
      If (feature 0 <= 30425.0)
       Predict: 0.0
      Else (feature 0 > 30425.0)
       Predict: 0.0
     Else (feature 0 > 37507.0)
      If (feature 0 <= 40003.0)
       Predict: 1.0
      Else (feature 0 > 40003.0)
       Predict: 0.0
    Else (feature 0 > 112715.0)
     If (feature 0 <= 132961.0)
      If (feature 0 <= 129600.0)
       Predict: 0.0
      Else (feature 0 > 129600.0)
       Predict: 1.0
     Else (feature 0 > 132961.0)
      If (feature 0 <= 186120.0)
       Predict: 0.0
      Else (feature 0 > 186120.0)
       Predict: 0.0
  Tree 43:
    If (feature 0 <= 112715.0)
     If (feature 0 <= 34777.0)
      If (feature 0 <= 29808.0)
       Predict: 0.0
      Else (feature 0 > 29808.0)
       Predict: 0.0
     Else (feature 0 > 34777.0)
      If (feature 0 <= 40003.0)
       Predict: 1.0
      Else (feature 0 > 40003.0)
       Predict: 0.0
    Else (feature 0 > 112715.0)
     If (feature 0 <= 132961.0)
      If (feature 0 <= 129600.0)
       Predict: 0.0
      Else (feature 0 > 129600.0)
       Predict: 1.0
     Else (feature 0 > 132961.0)
      If (feature 0 <= 256830.0)
       Predict: 0.0
      Else (feature 0 > 256830.0)
       Predict: 0.0
  Tree 44:
    If (feature 0 <= 45044.0)
     If (feature 0 <= 36487.0)
      If (feature 0 <= 30425.0)
       Predict: 0.0
      Else (feature 0 > 30425.0)
       Predict: 0.0
     Else (feature 0 > 36487.0)
      If (feature 0 <= 40003.0)
       Predict: 1.0
      Else (feature 0 > 40003.0)
       Predict: 0.0
    Else (feature 0 > 45044.0)
     If (feature 0 <= 132961.0)
      If (feature 0 <= 129600.0)
       Predict: 0.0
      Else (feature 0 > 129600.0)
       Predict: 1.0
     Else (feature 0 > 132961.0)
      If (feature 0 <= 186120.0)
       Predict: 0.0
      Else (feature 0 > 186120.0)
       Predict: 0.0
  Tree 45:
    If (feature 0 <= 114487.0)
     If (feature 0 <= 34777.0)
      If (feature 0 <= 29808.0)
       Predict: 0.0
      Else (feature 0 > 29808.0)
       Predict: 0.0
     Else (feature 0 > 34777.0)
      If (feature 0 <= 40003.0)
       Predict: 1.0
      Else (feature 0 > 40003.0)
       Predict: 0.0
    Else (feature 0 > 114487.0)
     If (feature 0 <= 132961.0)
      If (feature 0 <= 129600.0)
       Predict: 0.0
      Else (feature 0 > 129600.0)
       Predict: 1.0
     Else (feature 0 > 132961.0)
      If (feature 0 <= 259289.0)
       Predict: 0.0
      Else (feature 0 > 259289.0)
       Predict: 0.0
  Tree 46:
    If (feature 0 <= 112715.0)
     If (feature 0 <= 37507.0)
      If (feature 0 <= 29808.0)
       Predict: 0.0
      Else (feature 0 > 29808.0)
       Predict: 0.0
     Else (feature 0 > 37507.0)
      If (feature 0 <= 40003.0)
       Predict: 1.0
      Else (feature 0 > 40003.0)
       Predict: 0.0
    Else (feature 0 > 112715.0)
     If (feature 0 <= 132961.0)
      If (feature 0 <= 129600.0)
       Predict: 0.0
      Else (feature 0 > 129600.0)
       Predict: 0.0
     Else (feature 0 > 132961.0)
      If (feature 0 <= 5204151.0)
       Predict: 0.0
      Else (feature 0 > 5204151.0)
       Predict: 0.0
  Tree 47:
    If (feature 0 <= 45044.0)
     If (feature 0 <= 36487.0)
      If (feature 0 <= 30425.0)
       Predict: 0.0
      Else (feature 0 > 30425.0)
       Predict: 0.0
     Else (feature 0 > 36487.0)
      If (feature 0 <= 40003.0)
       Predict: 1.0
      Else (feature 0 > 40003.0)
       Predict: 0.0
    Else (feature 0 > 45044.0)
     If (feature 0 <= 119665.0)
      If (feature 0 <= 110677.0)
       Predict: 0.0
      Else (feature 0 > 110677.0)
       Predict: 0.0
     Else (feature 0 > 119665.0)
      If (feature 0 <= 132961.0)
       Predict: 0.0
      Else (feature 0 > 132961.0)
       Predict: 0.0
  Tree 48:
    If (feature 0 <= 45044.0)
     If (feature 0 <= 36487.0)
      If (feature 0 <= 29808.0)
       Predict: 0.0
      Else (feature 0 > 29808.0)
       Predict: 0.0
     Else (feature 0 > 36487.0)
      If (feature 0 <= 40003.0)
       Predict: 1.0
      Else (feature 0 > 40003.0)
       Predict: 0.0
    Else (feature 0 > 45044.0)
     If (feature 0 <= 132961.0)
      If (feature 0 <= 129600.0)
       Predict: 0.0
      Else (feature 0 > 129600.0)
       Predict: 1.0
     Else (feature 0 > 132961.0)
      If (feature 0 <= 259289.0)
       Predict: 0.0
      Else (feature 0 > 259289.0)
       Predict: 0.0
  Tree 49:
    If (feature 0 <= 112715.0)
     If (feature 0 <= 34777.0)
      If (feature 0 <= 29808.0)
       Predict: 0.0
      Else (feature 0 > 29808.0)
       Predict: 0.0
     Else (feature 0 > 34777.0)
      If (feature 0 <= 45044.0)
       Predict: 0.0
      Else (feature 0 > 45044.0)
       Predict: 0.0
    Else (feature 0 > 112715.0)
     If (feature 0 <= 119665.0)
      If (feature 0 <= 118224.0)
       Predict: 0.0
      Else (feature 0 > 118224.0)
       Predict: 0.0
     Else (feature 0 > 119665.0)
      If (feature 0 <= 132961.0)
       Predict: 0.0
      Else (feature 0 > 132961.0)
       Predict: 0.0
  Tree 50:
    If (feature 0 <= 45044.0)
     If (feature 0 <= 37507.0)
      If (feature 0 <= 36487.0)
       Predict: 0.0
      Else (feature 0 > 36487.0)
       Predict: 0.0
     Else (feature 0 > 37507.0)
      If (feature 0 <= 39235.0)
       Predict: 1.0
      Else (feature 0 > 39235.0)
       Predict: 1.0
    Else (feature 0 > 45044.0)
     If (feature 0 <= 132961.0)
      If (feature 0 <= 129600.0)
       Predict: 0.0
      Else (feature 0 > 129600.0)
       Predict: 1.0
     Else (feature 0 > 132961.0)
      If (feature 0 <= 259289.0)
       Predict: 0.0
      Else (feature 0 > 259289.0)
       Predict: 0.0
  Tree 51:
    If (feature 0 <= 118224.0)
     If (feature 0 <= 36487.0)
      If (feature 0 <= 30425.0)
       Predict: 0.0
      Else (feature 0 > 30425.0)
       Predict: 0.0
     Else (feature 0 > 36487.0)
      If (feature 0 <= 40003.0)
       Predict: 1.0
      Else (feature 0 > 40003.0)
       Predict: 0.0
    Else (feature 0 > 118224.0)
     If (feature 0 <= 186120.0)
      If (feature 0 <= 123438.0)
       Predict: 0.0
      Else (feature 0 > 123438.0)
       Predict: 0.0
     Else (feature 0 > 186120.0)
      If (feature 0 <= 259289.0)
       Predict: 0.0
      Else (feature 0 > 259289.0)
       Predict: 0.0
  Tree 52:
    If (feature 0 <= 44552.0)
     If (feature 0 <= 36487.0)
      If (feature 0 <= 29808.0)
       Predict: 0.0
      Else (feature 0 > 29808.0)
       Predict: 0.0
     Else (feature 0 > 36487.0)
      If (feature 0 <= 40003.0)
       Predict: 1.0
      Else (feature 0 > 40003.0)
       Predict: 0.0
    Else (feature 0 > 44552.0)
     If (feature 0 <= 118224.0)
      If (feature 0 <= 117336.0)
       Predict: 0.0
      Else (feature 0 > 117336.0)
       Predict: 0.0
     Else (feature 0 > 118224.0)
      If (feature 0 <= 132961.0)
       Predict: 0.0
      Else (feature 0 > 132961.0)
       Predict: 0.0
  Tree 53:
    If (feature 0 <= 44552.0)
     If (feature 0 <= 36487.0)
      If (feature 0 <= 29808.0)
       Predict: 0.0
      Else (feature 0 > 29808.0)
       Predict: 0.0
     Else (feature 0 > 36487.0)
      If (feature 0 <= 40003.0)
       Predict: 1.0
      Else (feature 0 > 40003.0)
       Predict: 0.0
    Else (feature 0 > 44552.0)
     If (feature 0 <= 132961.0)
      If (feature 0 <= 129600.0)
       Predict: 0.0
      Else (feature 0 > 129600.0)
       Predict: 1.0
     Else (feature 0 > 132961.0)
      If (feature 0 <= 256830.0)
       Predict: 0.0
      Else (feature 0 > 256830.0)
       Predict: 0.0
  Tree 54:
    If (feature 0 <= 112715.0)
     If (feature 0 <= 34777.0)
      If (feature 0 <= 29808.0)
       Predict: 0.0
      Else (feature 0 > 29808.0)
       Predict: 0.0
     Else (feature 0 > 34777.0)
      If (feature 0 <= 43842.0)
       Predict: 1.0
      Else (feature 0 > 43842.0)
       Predict: 0.0
    Else (feature 0 > 112715.0)
     If (feature 0 <= 132961.0)
      If (feature 0 <= 129600.0)
       Predict: 0.0
      Else (feature 0 > 129600.0)
       Predict: 0.0
     Else (feature 0 > 132961.0)
      If (feature 0 <= 259289.0)
       Predict: 0.0
      Else (feature 0 > 259289.0)
       Predict: 0.0
  Tree 55:
    If (feature 0 <= 112715.0)
     If (feature 0 <= 36487.0)
      If (feature 0 <= 29808.0)
       Predict: 0.0
      Else (feature 0 > 29808.0)
       Predict: 0.0
     Else (feature 0 > 36487.0)
      If (feature 0 <= 40003.0)
       Predict: 1.0
      Else (feature 0 > 40003.0)
       Predict: 0.0
    Else (feature 0 > 112715.0)
     If (feature 0 <= 132961.0)
      If (feature 0 <= 129600.0)
       Predict: 0.0
      Else (feature 0 > 129600.0)
       Predict: 0.0
     Else (feature 0 > 132961.0)
      If (feature 0 <= 259289.0)
       Predict: 0.0
      Else (feature 0 > 259289.0)
       Predict: 0.0
  Tree 56:
    If (feature 0 <= 112715.0)
     If (feature 0 <= 45044.0)
      If (feature 0 <= 36487.0)
       Predict: 0.0
      Else (feature 0 > 36487.0)
       Predict: 1.0
     Else (feature 0 > 45044.0)
      If (feature 0 <= 109301.0)
       Predict: 0.0
      Else (feature 0 > 109301.0)
       Predict: 0.0
    Else (feature 0 > 112715.0)
     If (feature 0 <= 132961.0)
      If (feature 0 <= 129600.0)
       Predict: 0.0
      Else (feature 0 > 129600.0)
       Predict: 0.0
     Else (feature 0 > 132961.0)
      If (feature 0 <= 256830.0)
       Predict: 0.0
      Else (feature 0 > 256830.0)
       Predict: 0.0
  Tree 57:
    If (feature 0 <= 112715.0)
     If (feature 0 <= 34777.0)
      If (feature 0 <= 29808.0)
       Predict: 0.0
      Else (feature 0 > 29808.0)
       Predict: 0.0
     Else (feature 0 > 34777.0)
      If (feature 0 <= 40003.0)
       Predict: 1.0
      Else (feature 0 > 40003.0)
       Predict: 0.0
    Else (feature 0 > 112715.0)
     If (feature 0 <= 132961.0)
      If (feature 0 <= 129600.0)
       Predict: 0.0
      Else (feature 0 > 129600.0)
       Predict: 1.0
     Else (feature 0 > 132961.0)
      If (feature 0 <= 259289.0)
       Predict: 0.0
      Else (feature 0 > 259289.0)
       Predict: 0.0
  Tree 58:
    If (feature 0 <= 45044.0)
     If (feature 0 <= 37507.0)
      If (feature 0 <= 34777.0)
       Predict: 0.0
      Else (feature 0 > 34777.0)
       Predict: 0.0
     Else (feature 0 > 37507.0)
      If (feature 0 <= 40003.0)
       Predict: 1.0
      Else (feature 0 > 40003.0)
       Predict: 0.0
    Else (feature 0 > 45044.0)
     If (feature 0 <= 132961.0)
      If (feature 0 <= 129600.0)
       Predict: 0.0
      Else (feature 0 > 129600.0)
       Predict: 1.0
     Else (feature 0 > 132961.0)
      If (feature 0 <= 259289.0)
       Predict: 0.0
      Else (feature 0 > 259289.0)
       Predict: 0.0
  Tree 59:
    If (feature 0 <= 45044.0)
     If (feature 0 <= 36487.0)
      If (feature 0 <= 29808.0)
       Predict: 0.0
      Else (feature 0 > 29808.0)
       Predict: 0.0
     Else (feature 0 > 36487.0)
      If (feature 0 <= 40003.0)
       Predict: 1.0
      Else (feature 0 > 40003.0)
       Predict: 0.0
    Else (feature 0 > 45044.0)
     If (feature 0 <= 119665.0)
      If (feature 0 <= 45600.0)
       Predict: 0.0
      Else (feature 0 > 45600.0)
       Predict: 0.0
     Else (feature 0 > 119665.0)
      If (feature 0 <= 136417.0)
       Predict: 0.0
      Else (feature 0 > 136417.0)
       Predict: 0.0
  Tree 60:
    If (feature 0 <= 45044.0)
     If (feature 0 <= 36487.0)
      If (feature 0 <= 30425.0)
       Predict: 0.0
      Else (feature 0 > 30425.0)
       Predict: 0.0
     Else (feature 0 > 36487.0)
      If (feature 0 <= 40003.0)
       Predict: 1.0
      Else (feature 0 > 40003.0)
       Predict: 0.0
    Else (feature 0 > 45044.0)
     If (feature 0 <= 132961.0)
      If (feature 0 <= 129600.0)
       Predict: 0.0
      Else (feature 0 > 129600.0)
       Predict: 1.0
     Else (feature 0 > 132961.0)
      If (feature 0 <= 259289.0)
       Predict: 0.0
      Else (feature 0 > 259289.0)
       Predict: 0.0
  Tree 61:
    If (feature 0 <= 112715.0)
     If (feature 0 <= 45044.0)
      If (feature 0 <= 36968.0)
       Predict: 0.0
      Else (feature 0 > 36968.0)
       Predict: 1.0
     Else (feature 0 > 45044.0)
      If (feature 0 <= 110677.0)
       Predict: 0.0
      Else (feature 0 > 110677.0)
       Predict: 0.0
    Else (feature 0 > 112715.0)
     If (feature 0 <= 132961.0)
      If (feature 0 <= 129600.0)
       Predict: 0.0
      Else (feature 0 > 129600.0)
       Predict: 1.0
     Else (feature 0 > 132961.0)
      If (feature 0 <= 259289.0)
       Predict: 0.0
      Else (feature 0 > 259289.0)
       Predict: 0.0
  Tree 62:
    If (feature 0 <= 45044.0)
     If (feature 0 <= 34777.0)
      If (feature 0 <= 29808.0)
       Predict: 0.0
      Else (feature 0 > 29808.0)
       Predict: 0.0
     Else (feature 0 > 34777.0)
      If (feature 0 <= 40588.0)
       Predict: 1.0
      Else (feature 0 > 40588.0)
       Predict: 0.0
    Else (feature 0 > 45044.0)
     If (feature 0 <= 132961.0)
      If (feature 0 <= 129600.0)
       Predict: 0.0
      Else (feature 0 > 129600.0)
       Predict: 0.0
     Else (feature 0 > 132961.0)
      If (feature 0 <= 186120.0)
       Predict: 0.0
      Else (feature 0 > 186120.0)
       Predict: 0.0
  Tree 63:
    If (feature 0 <= 111537.0)
     If (feature 0 <= 36487.0)
      If (feature 0 <= 30425.0)
       Predict: 0.0
      Else (feature 0 > 30425.0)
       Predict: 0.0
     Else (feature 0 > 36487.0)
      If (feature 0 <= 40003.0)
       Predict: 1.0
      Else (feature 0 > 40003.0)
       Predict: 0.0
    Else (feature 0 > 111537.0)
     If (feature 0 <= 132961.0)
      If (feature 0 <= 129600.0)
       Predict: 0.0
      Else (feature 0 > 129600.0)
       Predict: 0.0
     Else (feature 0 > 132961.0)
      If (feature 0 <= 256830.0)
       Predict: 0.0
      Else (feature 0 > 256830.0)
       Predict: 0.0
  Tree 64:
    If (feature 0 <= 118950.0)
     If (feature 0 <= 44552.0)
      If (feature 0 <= 37507.0)
       Predict: 0.0
      Else (feature 0 > 37507.0)
       Predict: 1.0
     Else (feature 0 > 44552.0)
      If (feature 0 <= 45600.0)
       Predict: 0.0
      Else (feature 0 > 45600.0)
       Predict: 0.0
    Else (feature 0 > 118950.0)
     If (feature 0 <= 132961.0)
      If (feature 0 <= 129600.0)
       Predict: 0.0
      Else (feature 0 > 129600.0)
       Predict: 0.0
     Else (feature 0 > 132961.0)
      If (feature 0 <= 259289.0)
       Predict: 0.0
      Else (feature 0 > 259289.0)
       Predict: 0.0
  Tree 65:
    If (feature 0 <= 45044.0)
     If (feature 0 <= 36968.0)
      If (feature 0 <= 30425.0)
       Predict: 0.0
      Else (feature 0 > 30425.0)
       Predict: 0.0
     Else (feature 0 > 36968.0)
      If (feature 0 <= 40003.0)
       Predict: 1.0
      Else (feature 0 > 40003.0)
       Predict: 0.0
    Else (feature 0 > 45044.0)
     If (feature 0 <= 132961.0)
      If (feature 0 <= 129600.0)
       Predict: 0.0
      Else (feature 0 > 129600.0)
       Predict: 1.0
     Else (feature 0 > 132961.0)
      If (feature 0 <= 256830.0)
       Predict: 0.0
      Else (feature 0 > 256830.0)
       Predict: 0.0
  Tree 66:
    If (feature 0 <= 45044.0)
     If (feature 0 <= 36968.0)
      If (feature 0 <= 29808.0)
       Predict: 0.0
      Else (feature 0 > 29808.0)
       Predict: 0.0
     Else (feature 0 > 36968.0)
      If (feature 0 <= 40003.0)
       Predict: 1.0
      Else (feature 0 > 40003.0)
       Predict: 0.0
    Else (feature 0 > 45044.0)
     If (feature 0 <= 132961.0)
      If (feature 0 <= 127670.0)
       Predict: 0.0
      Else (feature 0 > 127670.0)
       Predict: 0.0
     Else (feature 0 > 132961.0)
      If (feature 0 <= 259289.0)
       Predict: 0.0
      Else (feature 0 > 259289.0)
       Predict: 0.0
  Tree 67:
    If (feature 0 <= 112715.0)
     If (feature 0 <= 36487.0)
      If (feature 0 <= 34777.0)
       Predict: 0.0
      Else (feature 0 > 34777.0)
       Predict: 0.0
     Else (feature 0 > 36487.0)
      If (feature 0 <= 40003.0)
       Predict: 1.0
      Else (feature 0 > 40003.0)
       Predict: 0.0
    Else (feature 0 > 112715.0)
     If (feature 0 <= 132961.0)
      If (feature 0 <= 129600.0)
       Predict: 0.0
      Else (feature 0 > 129600.0)
       Predict: 0.0
     Else (feature 0 > 132961.0)
      If (feature 0 <= 259289.0)
       Predict: 0.0
      Else (feature 0 > 259289.0)
       Predict: 0.0
  Tree 68:
    If (feature 0 <= 45044.0)
     If (feature 0 <= 36487.0)
      If (feature 0 <= 29808.0)
       Predict: 0.0
      Else (feature 0 > 29808.0)
       Predict: 0.0
     Else (feature 0 > 36487.0)
      If (feature 0 <= 40003.0)
       Predict: 1.0
      Else (feature 0 > 40003.0)
       Predict: 0.0
    Else (feature 0 > 45044.0)
     If (feature 0 <= 132961.0)
      If (feature 0 <= 129600.0)
       Predict: 0.0
      Else (feature 0 > 129600.0)
       Predict: 1.0
     Else (feature 0 > 132961.0)
      If (feature 0 <= 186120.0)
       Predict: 0.0
      Else (feature 0 > 186120.0)
       Predict: 0.0
  Tree 69:
    If (feature 0 <= 119665.0)
     If (feature 0 <= 34777.0)
      If (feature 0 <= 30425.0)
       Predict: 0.0
      Else (feature 0 > 30425.0)
       Predict: 0.0
     Else (feature 0 > 34777.0)
      If (feature 0 <= 44552.0)
       Predict: 1.0
      Else (feature 0 > 44552.0)
       Predict: 0.0
    Else (feature 0 > 119665.0)
     If (feature 0 <= 132961.0)
      If (feature 0 <= 129600.0)
       Predict: 0.0
      Else (feature 0 > 129600.0)
       Predict: 1.0
     Else (feature 0 > 132961.0)
      If (feature 0 <= 186120.0)
       Predict: 0.0
      Else (feature 0 > 186120.0)
       Predict: 0.0
  Tree 70:
    If (feature 0 <= 44552.0)
     If (feature 0 <= 36487.0)
      If (feature 0 <= 29808.0)
       Predict: 0.0
      Else (feature 0 > 29808.0)
       Predict: 0.0
     Else (feature 0 > 36487.0)
      If (feature 0 <= 40588.0)
       Predict: 1.0
      Else (feature 0 > 40588.0)
       Predict: 0.0
    Else (feature 0 > 44552.0)
     If (feature 0 <= 119665.0)
      If (feature 0 <= 86400.0)
       Predict: 0.0
      Else (feature 0 > 86400.0)
       Predict: 0.0
     Else (feature 0 > 119665.0)
      If (feature 0 <= 132961.0)
       Predict: 0.0
      Else (feature 0 > 132961.0)
       Predict: 0.0
  Tree 71:
    If (feature 0 <= 44552.0)
     If (feature 0 <= 36487.0)
      If (feature 0 <= 29808.0)
       Predict: 0.0
      Else (feature 0 > 29808.0)
       Predict: 0.0
     Else (feature 0 > 36487.0)
      If (feature 0 <= 37507.0)
       Predict: 0.0
      Else (feature 0 > 37507.0)
       Predict: 1.0
    Else (feature 0 > 44552.0)
     If (feature 0 <= 119665.0)
      If (feature 0 <= 111537.0)
       Predict: 0.0
      Else (feature 0 > 111537.0)
       Predict: 0.0
     Else (feature 0 > 119665.0)
      If (feature 0 <= 132961.0)
       Predict: 0.0
      Else (feature 0 > 132961.0)
       Predict: 0.0
  Tree 72:
    If (feature 0 <= 44552.0)
     If (feature 0 <= 34777.0)
      If (feature 0 <= 29808.0)
       Predict: 0.0
      Else (feature 0 > 29808.0)
       Predict: 0.0
     Else (feature 0 > 34777.0)
      If (feature 0 <= 40003.0)
       Predict: 1.0
      Else (feature 0 > 40003.0)
       Predict: 0.0
    Else (feature 0 > 44552.0)
     If (feature 0 <= 132961.0)
      If (feature 0 <= 129600.0)
       Predict: 0.0
      Else (feature 0 > 129600.0)
       Predict: 1.0
     Else (feature 0 > 132961.0)
      If (feature 0 <= 256830.0)
       Predict: 0.0
      Else (feature 0 > 256830.0)
       Predict: 0.0
  Tree 73:
    If (feature 0 <= 112715.0)
     If (feature 0 <= 36487.0)
      If (feature 0 <= 29808.0)
       Predict: 0.0
      Else (feature 0 > 29808.0)
       Predict: 0.0
     Else (feature 0 > 36487.0)
      If (feature 0 <= 40003.0)
       Predict: 1.0
      Else (feature 0 > 40003.0)
       Predict: 0.0
    Else (feature 0 > 112715.0)
     If (feature 0 <= 132961.0)
      If (feature 0 <= 129600.0)
       Predict: 0.0
      Else (feature 0 > 129600.0)
       Predict: 0.0
     Else (feature 0 > 132961.0)
      If (feature 0 <= 259289.0)
       Predict: 0.0
      Else (feature 0 > 259289.0)
       Predict: 0.0
  Tree 74:
    If (feature 0 <= 112715.0)
     If (feature 0 <= 40003.0)
      If (feature 0 <= 36487.0)
       Predict: 0.0
      Else (feature 0 > 36487.0)
       Predict: 1.0
     Else (feature 0 > 40003.0)
      If (feature 0 <= 43200.0)
       Predict: 0.0
      Else (feature 0 > 43200.0)
       Predict: 0.0
    Else (feature 0 > 112715.0)
     If (feature 0 <= 132961.0)
      If (feature 0 <= 129600.0)
       Predict: 0.0
      Else (feature 0 > 129600.0)
       Predict: 0.0
     Else (feature 0 > 132961.0)
      If (feature 0 <= 259289.0)
       Predict: 0.0
      Else (feature 0 > 259289.0)
       Predict: 0.0
  Tree 75:
    If (feature 0 <= 112715.0)
     If (feature 0 <= 29808.0)
      Predict: 0.0
     Else (feature 0 > 29808.0)
      If (feature 0 <= 44552.0)
       Predict: 0.0
      Else (feature 0 > 44552.0)
       Predict: 0.0
    Else (feature 0 > 112715.0)
     If (feature 0 <= 132961.0)
      If (feature 0 <= 129600.0)
       Predict: 0.0
      Else (feature 0 > 129600.0)
       Predict: 1.0
     Else (feature 0 > 132961.0)
      If (feature 0 <= 186120.0)
       Predict: 0.0
      Else (feature 0 > 186120.0)
       Predict: 0.0
  Tree 76:
    If (feature 0 <= 112715.0)
     If (feature 0 <= 36487.0)
      If (feature 0 <= 29808.0)
       Predict: 0.0
      Else (feature 0 > 29808.0)
       Predict: 0.0
     Else (feature 0 > 36487.0)
      If (feature 0 <= 40003.0)
       Predict: 1.0
      Else (feature 0 > 40003.0)
       Predict: 0.0
    Else (feature 0 > 112715.0)
     If (feature 0 <= 132961.0)
      If (feature 0 <= 129600.0)
       Predict: 0.0
      Else (feature 0 > 129600.0)
       Predict: 1.0
     Else (feature 0 > 132961.0)
      If (feature 0 <= 259289.0)
       Predict: 0.0
      Else (feature 0 > 259289.0)
       Predict: 0.0
  Tree 77:
    If (feature 0 <= 45044.0)
     If (feature 0 <= 37507.0)
      If (feature 0 <= 29808.0)
       Predict: 0.0
      Else (feature 0 > 29808.0)
       Predict: 0.0
     Else (feature 0 > 37507.0)
      If (feature 0 <= 40003.0)
       Predict: 1.0
      Else (feature 0 > 40003.0)
       Predict: 0.0
    Else (feature 0 > 45044.0)
     If (feature 0 <= 132961.0)
      If (feature 0 <= 129600.0)
       Predict: 0.0
      Else (feature 0 > 129600.0)
       Predict: 1.0
     Else (feature 0 > 132961.0)
      If (feature 0 <= 259289.0)
       Predict: 0.0
      Else (feature 0 > 259289.0)
       Predict: 0.0
  Tree 78:
    If (feature 0 <= 119665.0)
     If (feature 0 <= 45044.0)
      If (feature 0 <= 37507.0)
       Predict: 0.0
      Else (feature 0 > 37507.0)
       Predict: 1.0
     Else (feature 0 > 45044.0)
      If (feature 0 <= 109301.0)
       Predict: 0.0
      Else (feature 0 > 109301.0)
       Predict: 0.0
    Else (feature 0 > 119665.0)
     If (feature 0 <= 132961.0)
      If (feature 0 <= 129600.0)
       Predict: 0.0
      Else (feature 0 > 129600.0)
       Predict: 0.0
     Else (feature 0 > 132961.0)
      If (feature 0 <= 259289.0)
       Predict: 0.0
      Else (feature 0 > 259289.0)
       Predict: 0.0
  Tree 79:
    If (feature 0 <= 45044.0)
     If (feature 0 <= 36487.0)
      If (feature 0 <= 30425.0)
       Predict: 0.0
      Else (feature 0 > 30425.0)
       Predict: 0.0
     Else (feature 0 > 36487.0)
      If (feature 0 <= 40003.0)
       Predict: 1.0
      Else (feature 0 > 40003.0)
       Predict: 0.0
    Else (feature 0 > 45044.0)
     If (feature 0 <= 119665.0)
      If (feature 0 <= 98742.0)
       Predict: 0.0
      Else (feature 0 > 98742.0)
       Predict: 0.0
     Else (feature 0 > 119665.0)
      If (feature 0 <= 132961.0)
       Predict: 0.0
      Else (feature 0 > 132961.0)
       Predict: 0.0
  Tree 80:
    If (feature 0 <= 44552.0)
     If (feature 0 <= 37507.0)
      If (feature 0 <= 29808.0)
       Predict: 0.0
      Else (feature 0 > 29808.0)
       Predict: 0.0
     Else (feature 0 > 37507.0)
      If (feature 0 <= 40003.0)
       Predict: 1.0
      Else (feature 0 > 40003.0)
       Predict: 0.0
    Else (feature 0 > 44552.0)
     If (feature 0 <= 132961.0)
      If (feature 0 <= 86400.0)
       Predict: 0.0
      Else (feature 0 > 86400.0)
       Predict: 0.0
     Else (feature 0 > 132961.0)
      If (feature 0 <= 256830.0)
       Predict: 0.0
      Else (feature 0 > 256830.0)
       Predict: 0.0
  Tree 81:
    If (feature 0 <= 112715.0)
     If (feature 0 <= 29808.0)
      Predict: 0.0
     Else (feature 0 > 29808.0)
      If (feature 0 <= 40003.0)
       Predict: 1.0
      Else (feature 0 > 40003.0)
       Predict: 0.0
    Else (feature 0 > 112715.0)
     If (feature 0 <= 132961.0)
      If (feature 0 <= 129600.0)
       Predict: 0.0
      Else (feature 0 > 129600.0)
       Predict: 0.0
     Else (feature 0 > 132961.0)
      If (feature 0 <= 259289.0)
       Predict: 0.0
      Else (feature 0 > 259289.0)
       Predict: 0.0
  Tree 82:
    If (feature 0 <= 45044.0)
     If (feature 0 <= 36968.0)
      If (feature 0 <= 29808.0)
       Predict: 0.0
      Else (feature 0 > 29808.0)
       Predict: 0.0
     Else (feature 0 > 36968.0)
      If (feature 0 <= 40003.0)
       Predict: 1.0
      Else (feature 0 > 40003.0)
       Predict: 0.0
    Else (feature 0 > 45044.0)
     If (feature 0 <= 132961.0)
      If (feature 0 <= 129600.0)
       Predict: 0.0
      Else (feature 0 > 129600.0)
       Predict: 1.0
     Else (feature 0 > 132961.0)
      If (feature 0 <= 259289.0)
       Predict: 0.0
      Else (feature 0 > 259289.0)
       Predict: 0.0
  Tree 83:
    If (feature 0 <= 45044.0)
     If (feature 0 <= 36487.0)
      If (feature 0 <= 29808.0)
       Predict: 0.0
      Else (feature 0 > 29808.0)
       Predict: 0.0
     Else (feature 0 > 36487.0)
      If (feature 0 <= 40003.0)
       Predict: 1.0
      Else (feature 0 > 40003.0)
       Predict: 0.0
    Else (feature 0 > 45044.0)
     If (feature 0 <= 132961.0)
      If (feature 0 <= 110677.0)
       Predict: 0.0
      Else (feature 0 > 110677.0)
       Predict: 0.0
     Else (feature 0 > 132961.0)
      If (feature 0 <= 259289.0)
       Predict: 0.0
      Else (feature 0 > 259289.0)
       Predict: 0.0
  Tree 84:
    If (feature 0 <= 114487.0)
     If (feature 0 <= 44552.0)
      If (feature 0 <= 36487.0)
       Predict: 0.0
      Else (feature 0 > 36487.0)
       Predict: 1.0
     Else (feature 0 > 44552.0)
      If (feature 0 <= 110677.0)
       Predict: 0.0
      Else (feature 0 > 110677.0)
       Predict: 0.0
    Else (feature 0 > 114487.0)
     If (feature 0 <= 119665.0)
      If (feature 0 <= 117336.0)
       Predict: 0.0
      Else (feature 0 > 117336.0)
       Predict: 0.0
     Else (feature 0 > 119665.0)
      If (feature 0 <= 132961.0)
       Predict: 0.0
      Else (feature 0 > 132961.0)
       Predict: 0.0
  Tree 85:
    If (feature 0 <= 112064.0)
     If (feature 0 <= 36487.0)
      If (feature 0 <= 29808.0)
       Predict: 0.0
      Else (feature 0 > 29808.0)
       Predict: 0.0
     Else (feature 0 > 36487.0)
      If (feature 0 <= 45044.0)
       Predict: 1.0
      Else (feature 0 > 45044.0)
       Predict: 0.0
    Else (feature 0 > 112064.0)
     If (feature 0 <= 119665.0)
      If (feature 0 <= 118950.0)
       Predict: 0.0
      Else (feature 0 > 118950.0)
       Predict: 0.0
     Else (feature 0 > 119665.0)
      If (feature 0 <= 123438.0)
       Predict: 0.0
      Else (feature 0 > 123438.0)
       Predict: 0.0
  Tree 86:
    If (feature 0 <= 114487.0)
     If (feature 0 <= 36487.0)
      If (feature 0 <= 29808.0)
       Predict: 0.0
      Else (feature 0 > 29808.0)
       Predict: 0.0
     Else (feature 0 > 36487.0)
      If (feature 0 <= 40003.0)
       Predict: 1.0
      Else (feature 0 > 40003.0)
       Predict: 0.0
    Else (feature 0 > 114487.0)
     If (feature 0 <= 132961.0)
      If (feature 0 <= 129600.0)
       Predict: 0.0
      Else (feature 0 > 129600.0)
       Predict: 1.0
     Else (feature 0 > 132961.0)
      If (feature 0 <= 259289.0)
       Predict: 0.0
      Else (feature 0 > 259289.0)
       Predict: 0.0
  Tree 87:
    If (feature 0 <= 45044.0)
     If (feature 0 <= 36487.0)
      If (feature 0 <= 30425.0)
       Predict: 0.0
      Else (feature 0 > 30425.0)
       Predict: 0.0
     Else (feature 0 > 36487.0)
      If (feature 0 <= 40003.0)
       Predict: 1.0
      Else (feature 0 > 40003.0)
       Predict: 0.0
    Else (feature 0 > 45044.0)
     If (feature 0 <= 132961.0)
      If (feature 0 <= 129600.0)
       Predict: 0.0
      Else (feature 0 > 129600.0)
       Predict: 0.0
     Else (feature 0 > 132961.0)
      If (feature 0 <= 259289.0)
       Predict: 0.0
      Else (feature 0 > 259289.0)
       Predict: 0.0
  Tree 88:
    If (feature 0 <= 114487.0)
     If (feature 0 <= 34777.0)
      If (feature 0 <= 30425.0)
       Predict: 0.0
      Else (feature 0 > 30425.0)
       Predict: 0.0
     Else (feature 0 > 34777.0)
      If (feature 0 <= 40003.0)
       Predict: 1.0
      Else (feature 0 > 40003.0)
       Predict: 0.0
    Else (feature 0 > 114487.0)
     If (feature 0 <= 132961.0)
      If (feature 0 <= 129600.0)
       Predict: 0.0
      Else (feature 0 > 129600.0)
       Predict: 1.0
     Else (feature 0 > 132961.0)
      If (feature 0 <= 259289.0)
       Predict: 0.0
      Else (feature 0 > 259289.0)
       Predict: 0.0
  Tree 89:
    If (feature 0 <= 112715.0)
     If (feature 0 <= 34777.0)
      If (feature 0 <= 29808.0)
       Predict: 0.0
      Else (feature 0 > 29808.0)
       Predict: 0.0
     Else (feature 0 > 34777.0)
      If (feature 0 <= 40588.0)
       Predict: 1.0
      Else (feature 0 > 40588.0)
       Predict: 0.0
    Else (feature 0 > 112715.0)
     If (feature 0 <= 119665.0)
      If (feature 0 <= 116128.0)
       Predict: 0.0
      Else (feature 0 > 116128.0)
       Predict: 0.0
     Else (feature 0 > 119665.0)
      If (feature 0 <= 132961.0)
       Predict: 0.0
      Else (feature 0 > 132961.0)
       Predict: 0.0
  Tree 90:
    If (feature 0 <= 111537.0)
     If (feature 0 <= 34777.0)
      If (feature 0 <= 29808.0)
       Predict: 0.0
      Else (feature 0 > 29808.0)
       Predict: 0.0
     Else (feature 0 > 34777.0)
      If (feature 0 <= 40003.0)
       Predict: 1.0
      Else (feature 0 > 40003.0)
       Predict: 0.0
    Else (feature 0 > 111537.0)
     If (feature 0 <= 132961.0)
      If (feature 0 <= 129600.0)
       Predict: 0.0
      Else (feature 0 > 129600.0)
       Predict: 1.0
     Else (feature 0 > 132961.0)
      If (feature 0 <= 158400.0)
       Predict: 0.0
      Else (feature 0 > 158400.0)
       Predict: 0.0
  Tree 91:
    If (feature 0 <= 112715.0)
     If (feature 0 <= 36487.0)
      If (feature 0 <= 29808.0)
       Predict: 0.0
      Else (feature 0 > 29808.0)
       Predict: 0.0
     Else (feature 0 > 36487.0)
      If (feature 0 <= 40003.0)
       Predict: 1.0
      Else (feature 0 > 40003.0)
       Predict: 0.0
    Else (feature 0 > 112715.0)
     If (feature 0 <= 132961.0)
      If (feature 0 <= 129600.0)
       Predict: 0.0
      Else (feature 0 > 129600.0)
       Predict: 1.0
     Else (feature 0 > 132961.0)
      If (feature 0 <= 256830.0)
       Predict: 0.0
      Else (feature 0 > 256830.0)
       Predict: 0.0
  Tree 92:
    If (feature 0 <= 112715.0)
     If (feature 0 <= 34777.0)
      If (feature 0 <= 30425.0)
       Predict: 0.0
      Else (feature 0 > 30425.0)
       Predict: 0.0
     Else (feature 0 > 34777.0)
      If (feature 0 <= 40588.0)
       Predict: 1.0
      Else (feature 0 > 40588.0)
       Predict: 0.0
    Else (feature 0 > 112715.0)
     If (feature 0 <= 119665.0)
      If (feature 0 <= 118224.0)
       Predict: 0.0
      Else (feature 0 > 118224.0)
       Predict: 0.0
     Else (feature 0 > 119665.0)
      If (feature 0 <= 127670.0)
       Predict: 0.0
      Else (feature 0 > 127670.0)
       Predict: 0.0
  Tree 93:
    If (feature 0 <= 112715.0)
     If (feature 0 <= 36487.0)
      If (feature 0 <= 29808.0)
       Predict: 0.0
      Else (feature 0 > 29808.0)
       Predict: 0.0
     Else (feature 0 > 36487.0)
      If (feature 0 <= 40003.0)
       Predict: 1.0
      Else (feature 0 > 40003.0)
       Predict: 0.0
    Else (feature 0 > 112715.0)
     If (feature 0 <= 132961.0)
      If (feature 0 <= 129600.0)
       Predict: 0.0
      Else (feature 0 > 129600.0)
       Predict: 1.0
     Else (feature 0 > 132961.0)
      If (feature 0 <= 259289.0)
       Predict: 0.0
      Else (feature 0 > 259289.0)
       Predict: 0.0
  Tree 94:
    If (feature 0 <= 112715.0)
     If (feature 0 <= 45044.0)
      If (feature 0 <= 36487.0)
       Predict: 0.0
      Else (feature 0 > 36487.0)
       Predict: 0.0
     Else (feature 0 > 45044.0)
      If (feature 0 <= 110677.0)
       Predict: 0.0
      Else (feature 0 > 110677.0)
       Predict: 0.0
    Else (feature 0 > 112715.0)
     If (feature 0 <= 132961.0)
      If (feature 0 <= 129600.0)
       Predict: 0.0
      Else (feature 0 > 129600.0)
       Predict: 0.0
     Else (feature 0 > 132961.0)
      If (feature 0 <= 259289.0)
       Predict: 0.0
      Else (feature 0 > 259289.0)
       Predict: 0.0
  Tree 95:
    If (feature 0 <= 112715.0)
     If (feature 0 <= 43842.0)
      If (feature 0 <= 36968.0)
       Predict: 0.0
      Else (feature 0 > 36968.0)
       Predict: 1.0
     Else (feature 0 > 43842.0)
      If (feature 0 <= 109301.0)
       Predict: 0.0
      Else (feature 0 > 109301.0)
       Predict: 0.0
    Else (feature 0 > 112715.0)
     If (feature 0 <= 132961.0)
      If (feature 0 <= 129600.0)
       Predict: 0.0
      Else (feature 0 > 129600.0)
       Predict: 0.0
     Else (feature 0 > 132961.0)
      If (feature 0 <= 259289.0)
       Predict: 0.0
      Else (feature 0 > 259289.0)
       Predict: 0.0
  Tree 96:
    If (feature 0 <= 112715.0)
     If (feature 0 <= 36487.0)
      If (feature 0 <= 34777.0)
       Predict: 0.0
      Else (feature 0 > 34777.0)
       Predict: 0.0
     Else (feature 0 > 36487.0)
      If (feature 0 <= 40003.0)
       Predict: 1.0
      Else (feature 0 > 40003.0)
       Predict: 0.0
    Else (feature 0 > 112715.0)
     If (feature 0 <= 132961.0)
      If (feature 0 <= 129600.0)
       Predict: 0.0
      Else (feature 0 > 129600.0)
       Predict: 0.0
     Else (feature 0 > 132961.0)
      If (feature 0 <= 259289.0)
       Predict: 0.0
      Else (feature 0 > 259289.0)
       Predict: 0.0
  Tree 97:
    If (feature 0 <= 112715.0)
     If (feature 0 <= 36968.0)
      If (feature 0 <= 29808.0)
       Predict: 0.0
      Else (feature 0 > 29808.0)
       Predict: 0.0
     Else (feature 0 > 36968.0)
      If (feature 0 <= 40003.0)
       Predict: 1.0
      Else (feature 0 > 40003.0)
       Predict: 0.0
    Else (feature 0 > 112715.0)
     If (feature 0 <= 132961.0)
      If (feature 0 <= 129600.0)
       Predict: 0.0
      Else (feature 0 > 129600.0)
       Predict: 0.0
     Else (feature 0 > 132961.0)
      If (feature 0 <= 5204151.0)
       Predict: 0.0
      Else (feature 0 > 5204151.0)
       Predict: 0.0
  Tree 98:
    If (feature 0 <= 44552.0)
     If (feature 0 <= 36487.0)
      If (feature 0 <= 34777.0)
       Predict: 0.0
      Else (feature 0 > 34777.0)
       Predict: 0.0
     Else (feature 0 > 36487.0)
      If (feature 0 <= 40003.0)
       Predict: 1.0
      Else (feature 0 > 40003.0)
       Predict: 0.0
    Else (feature 0 > 44552.0)
     If (feature 0 <= 132961.0)
      If (feature 0 <= 129600.0)
       Predict: 0.0
      Else (feature 0 > 129600.0)
       Predict: 1.0
     Else (feature 0 > 132961.0)
      If (feature 0 <= 259289.0)
       Predict: 0.0
      Else (feature 0 > 259289.0)
       Predict: 0.0
  Tree 99:
    If (feature 0 <= 112715.0)
     If (feature 0 <= 36487.0)
      If (feature 0 <= 30425.0)
       Predict: 0.0
      Else (feature 0 > 30425.0)
       Predict: 0.0
     Else (feature 0 > 36487.0)
      If (feature 0 <= 44552.0)
       Predict: 1.0
      Else (feature 0 > 44552.0)
       Predict: 0.0
    Else (feature 0 > 112715.0)
     If (feature 0 <= 119665.0)
      If (feature 0 <= 118224.0)
       Predict: 0.0
      Else (feature 0 > 118224.0)
       Predict: 0.0
     Else (feature 0 > 119665.0)
      If (feature 0 <= 186120.0)
       Predict: 0.0
      Else (feature 0 > 186120.0)
       Predict: 0.0
--------------
